<?xml version="1.0"?>
<opencv_storage>
<stage0>
  <maxWeakCount>8</maxWeakCount>
  <stageThreshold>-1.3297362327575684e+00</stageThreshold>
  <weakClassifiers>
    <_>
      <internalNodes>
        0 -1 61136 -4.9411490559577942e-02</internalNodes>
      <leafValues>
        8.1775701045989990e-01 -4.8470208048820496e-01</leafValues></_>
    <_>
      <internalNodes>
        0 -1 45241 -7.5062856078147888e-02</internalNodes>
      <leafValues>
        9.3933260440826416e-01 -1.8165026605129242e-01</leafValues></_>
    <_>
      <internalNodes>
        0 -1 51961 9.5775201916694641e-02</internalNodes>
      <leafValues>
        -1.6434581577777863e-01 7.8198868036270142e-01</leafValues></_>
    <_>
      <internalNodes>
        0 -1 114414 -3.6879497929476202e-04</internalNodes>
      <leafValues>
        -6.0003149509429932e-01 2.9613450169563293e-01</leafValues></_>
    <_>
      <internalNodes>
        0 -1 114414 3.8751307874917984e-04</internalNodes>
      <leafValues>
        2.3640717566013336e-01 -6.4196515083312988e-01</leafValues></_>
    <_>
      <internalNodes>
        0 -1 43314 6.6634908318519592e-02</internalNodes>
      <leafValues>
        -2.3843656480312347e-01 7.7056223154067993e-01</leafValues></_>
    <_>
      <internalNodes>
        0 -1 107202 -8.2874186336994171e-02</internalNodes>
      <leafValues>
        8.4808796644210815e-01 -1.4570160210132599e-01</leafValues></_>
    <_>
      <internalNodes>
        0 -1 161263 -4.3322000419721007e-04</internalNodes>
      <leafValues>
        -6.4981871843338013e-01 2.3093076050281525e-01</leafValues></_></weakClassifiers></stage0>
</opencv_storage>
